digraph Tree {
node [shape=box, style="filled, rounded", color="black", fontname=helvetica] ;
edge [fontname=helvetica] ;
0 [label="petal width (cm) <= 0.8\ngini = 0.66\nsamples = 97\nvalue = [47, 55, 48]\nclass = versicolor", fillcolor="#f1fdf6"] ;
1 [label="gini = 0.0\nsamples = 32\nvalue = [47, 0, 0]\nclass = setosa", fillcolor="#e58139"] ;
0 -> 1 [labeldistance=2.5, labelangle=45, headlabel="True"] ;
2 [label="petal length (cm) <= 4.85\ngini = 0.5\nsamples = 65\nvalue = [0, 55, 48]\nclass = versicolor", fillcolor="#e6fcef"] ;
0 -> 2 [labeldistance=2.5, labelangle=-45, headlabel="False"] ;
3 [label="petal width (cm) <= 1.65\ngini = 0.1\nsamples = 35\nvalue = [0, 53, 3]\nclass = versicolor", fillcolor="#44e688"] ;
2 -> 3 ;
4 [label="gini = 0.0\nsamples = 32\nvalue = [0, 52, 0]\nclass = versicolor", fillcolor="#39e581"] ;
3 -> 4 ;
5 [label="sepal length (cm) <= 5.95\ngini = 0.38\nsamples = 3\nvalue = [0, 1, 3]\nclass = virginica", fillcolor="#ab7bee"] ;
3 -> 5 ;
6 [label="petal length (cm) <= 4.65\ngini = 0.5\nsamples = 2\nvalue = [0, 1, 1]\nclass = versicolor", fillcolor="#ffffff"] ;
5 -> 6 ;
7 [label="gini = 0.0\nsamples = 1\nvalue = [0, 0, 1]\nclass = virginica", fillcolor="#8139e5"] ;
6 -> 7 ;
8 [label="gini = 0.0\nsamples = 1\nvalue = [0, 1, 0]\nclass = versicolor", fillcolor="#39e581"] ;
6 -> 8 ;
9 [label="gini = 0.0\nsamples = 1\nvalue = [0, 0, 2]\nclass = virginica", fillcolor="#8139e5"] ;
5 -> 9 ;
10 [label="petal width (cm) <= 1.75\ngini = 0.08\nsamples = 30\nvalue = [0, 2, 45]\nclass = virginica", fillcolor="#8742e6"] ;
2 -> 10 ;
11 [label="sepal length (cm) <= 7.05\ngini = 0.48\nsamples = 4\nvalue = [0, 2, 3]\nclass = virginica", fillcolor="#d5bdf6"] ;
10 -> 11 ;
12 [label="sepal width (cm) <= 2.6\ngini = 0.44\nsamples = 3\nvalue = [0, 2, 1]\nclass = versicolor", fillcolor="#9cf2c0"] ;
11 -> 12 ;
13 [label="gini = 0.0\nsamples = 1\nvalue = [0, 0, 1]\nclass = virginica", fillcolor="#8139e5"] ;
12 -> 13 ;
14 [label="gini = 0.0\nsamples = 2\nvalue = [0, 2, 0]\nclass = versicolor", fillcolor="#39e581"] ;
12 -> 14 ;
15 [label="gini = 0.0\nsamples = 1\nvalue = [0, 0, 2]\nclass = virginica", fillcolor="#8139e5"] ;
11 -> 15 ;
16 [label="gini = 0.0\nsamples = 26\nvalue = [0, 0, 42]\nclass = virginica", fillcolor="#8139e5"] ;
10 -> 16 ;
}